<?xml version="1.0"?>
<opencv_storage>
<cascade>
  <stageType>BOOST</stageType>
  <featureType>HAAR</featureType>
  <height>20</height>
  <width>20</width>
  <stageParams>
    <boostType>GAB</boostType>
    <minHitRate>9.9900001287460327e-01</minHitRate>
    <maxFalseAlarm>5.0000000745058060e-02</maxFalseAlarm>
    <weightTrimRate>9.4999999999999996e-01</weightTrimRate>
    <maxDepth>1</maxDepth>
    <maxWeakCount>100</maxWeakCount></stageParams>
  <featureParams>
    <maxCatCount>0</maxCatCount>
    <featSize>1</featSize>
    <mode>ALL</mode></featureParams>
  <stageNum>3</stageNum>
  <stages>
    <!-- stage 0 -->
    <_>
      <maxWeakCount>1</maxWeakCount>
      <stageThreshold>1.</stageThreshold>
      <weakClassifiers>
        <_>
          <internalNodes>
            0 -1 3 2.1067604422569275e-01</internalNodes>
          <leafValues>
            -1. 1.</leafValues></_></weakClassifiers></_>
    <!-- stage 1 -->
    <_>
      <maxWeakCount>3</maxWeakCount>
      <stageThreshold>8.1071388721466064e-01</stageThreshold>
      <weakClassifiers>
        <_>
          <internalNodes>
            0 -1 0 -7.5566470623016357e-02</internalNodes>
          <leafValues>
            9.2649900913238525e-01 -9.9171841144561768e-01</leafValues></_>
        <_>
          <internalNodes>
            0 -1 2 -1.5210112929344177e-01</internalNodes>
          <leafValues>
            8.4504783153533936e-01 -9.7390252351760864e-01</leafValues></_>
        <_>
          <internalNodes>
            0 -1 1 -2.4044606834650040e-02</internalNodes>
          <leafValues>
            9.5738452672958374e-01 -8.4873640537261963e-01</leafValues></_></weakClassifiers></_>
    <!-- stage 2 -->
    <_>
      <maxWeakCount>4</maxWeakCount>
      <stageThreshold>-2.5906476378440857e-01</stageThreshold>
      <weakClassifiers>
        <_>
          <internalNodes>
            0 -1 6 -1.7187598347663879e-01</internalNodes>
          <leafValues>
            9.4444441795349121e-01 -9.5967739820480347e-01</leafValues></_>
        <_>
          <internalNodes>
            0 -1 7 2.3932623863220215e-01</internalNodes>
          <leafValues>
            -9.7021335363388062e-01 8.5768747329711914e-01</leafValues></_>
        <_>
          <internalNodes>
            0 -1 5 -2.1779403090476990e-01</internalNodes>
          <leafValues>
            8.2143205404281616e-01 -9.1509157419204712e-01</leafValues></_>
        <_>
          <internalNodes>
            0 -1 4 -8.3705774159170687e-05</internalNodes>
          <leafValues>
            -9.7850692272186279e-01 8.0255144834518433e-01</leafValues></_></weakClassifiers></_></stages>
  <features>
    <_>
      <rects>
        <_>
          0 2 20 5 -1.</_>
        <_>
          5 2 10 5 2.</_></rects>
      <tilted>0</tilted></_>
    <_>
      <rects>
        <_>
          0 16 20 1 -1.</_>
        <_>
          5 16 10 1 2.</_></rects>
      <tilted>0</tilted></_>
    <_>
      <rects>
        <_>
          1 1 18 18 -1.</_>
        <_>
          7 1 6 18 3.</_></rects>
      <tilted>0</tilted></_>
    <_>
      <rects>
        <_>
          3 6 10 9 -1.</_>
        <_>
          3 9 10 3 3.</_></rects>
      <tilted>0</tilted></_>
    <_>
      <rects>
        <_>
          4 5 12 2 -1.</_>
        <_>
          7 5 6 2 2.</_></rects>
      <tilted>0</tilted></_>
    <_>
      <rects>
        <_>
          4 8 13 8 -1.</_>
        <_>
          4 12 13 4 2.</_></rects>
      <tilted>0</tilted></_>
    <_>
      <rects>
        <_>
          5 9 11 6 -1.</_>
        <_>
          5 12 11 3 2.</_></rects>
      <tilted>0</tilted></_>
    <_>
      <rects>
        <_>
          6 5 9 9 -1.</_>
        <_>
          6 8 9 3 3.</_></rects>
      <tilted>0</tilted></_></features></cascade>
</opencv_storage>
